digraph Tree {
node [shape=box, style="filled, rounded", color="black", fontname="helvetica"] ;
edge [fontname="helvetica"] ;
0 [label="taxa_juros <= 12.5\ngini = 0.247\nsamples = 1900\nvalue = [274, 1626]\nclass = Conceder", fillcolor="#5aaee9"] ;
1 [label="num_cartoes_credito <= 2.5\ngini = 0.426\nsamples = 867\nvalue = [267, 600]\nclass = Conceder", fillcolor="#91c9f1"] ;
0 -> 1 [labeldistance=2.5, labelangle=45, headlabel="True"] ;
2 [label="taxa_utilizacao_credito <= 30.378\ngini = 0.259\nsamples = 72\nvalue = [61, 11]\nclass = Negar", fillcolor="#ea985d"] ;
1 -> 2 ;
3 [label="gini = 0.074\nsamples = 26\nvalue = [25, 1]\nclass = Negar", fillcolor="#e68641"] ;
2 -> 3 ;
4 [label="dias_atraso_dt_venc <= 8.5\ngini = 0.34\nsamples = 46\nvalue = [36, 10]\nclass = Negar", fillcolor="#eca470"] ;
2 -> 4 ;
5 [label="gini = 0.454\nsamples = 23\nvalue = [15, 8]\nclass = Negar", fillcolor="#f3c4a3"] ;
4 -> 5 ;
6 [label="gini = 0.159\nsamples = 23\nvalue = [21, 2]\nclass = Negar", fillcolor="#e78d4c"] ;
4 -> 6 ;
7 [label="num_consultas_credito <= 4.5\ngini = 0.384\nsamples = 795\nvalue = [206, 589]\nclass = Conceder", fillcolor="#7ebfee"] ;
1 -> 7 ;
8 [label="dias_atraso_dt_venc <= 16.5\ngini = 0.422\nsamples = 673\nvalue = [204, 469]\nclass = Conceder", fillcolor="#8fc8f0"] ;
7 -> 8 ;
9 [label="renda_anual <= 128323.945\ngini = 0.464\nsamples = 483\nvalue = [177, 306]\nclass = Conceder", fillcolor="#acd6f4"] ;
8 -> 9 ;
10 [label="num_cartoes_credito <= 5.5\ngini = 0.442\nsamples = 403\nvalue = [133, 270]\nclass = Conceder", fillcolor="#9bcdf2"] ;
9 -> 10 ;
11 [label="valor_em_investimentos <= 151.583\ngini = 0.476\nsamples = 264\nvalue = [103, 161]\nclass = Conceder", fillcolor="#b8dcf6"] ;
10 -> 11 ;
12 [label="divida_atual <= 706.595\ngini = 0.423\nsamples = 155\nvalue = [47, 108]\nclass = Conceder", fillcolor="#8fc8f0"] ;
11 -> 12 ;
13 [label="dias_atraso_dt_venc <= 11.5\ngini = 0.293\nsamples = 73\nvalue = [13, 60]\nclass = Conceder", fillcolor="#64b2eb"] ;
12 -> 13 ;
14 [label="taxa_utilizacao_credito <= 33.907\ngini = 0.385\nsamples = 50\nvalue = [13, 37]\nclass = Conceder", fillcolor="#7fbfee"] ;
13 -> 14 ;
15 [label="gini = 0.252\nsamples = 27\nvalue = [4, 23]\nclass = Conceder", fillcolor="#5baeea"] ;
14 -> 15 ;
16 [label="gini = 0.476\nsamples = 23\nvalue = [9, 14]\nclass = Conceder", fillcolor="#b8dcf6"] ;
14 -> 16 ;
17 [label="gini = 0.0\nsamples = 23\nvalue = [0, 23]\nclass = Conceder", fillcolor="#399de5"] ;
13 -> 17 ;
18 [label="num_pgtos_atrasados <= 13.5\ngini = 0.485\nsamples = 82\nvalue = [34, 48]\nclass = Conceder", fillcolor="#c5e2f7"] ;
12 -> 18 ;
19 [label="divida_atual <= 1251.105\ngini = 0.499\nsamples = 59\nvalue = [31, 28]\nclass = Negar", fillcolor="#fcf3ec"] ;
18 -> 19 ;
20 [label="gini = 0.478\nsamples = 38\nvalue = [23, 15]\nclass = Negar", fillcolor="#f6d3ba"] ;
19 -> 20 ;
21 [label="gini = 0.472\nsamples = 21\nvalue = [8, 13]\nclass = Conceder", fillcolor="#b3d9f5"] ;
19 -> 21 ;
22 [label="gini = 0.227\nsamples = 23\nvalue = [3, 20]\nclass = Conceder", fillcolor="#57ace9"] ;
18 -> 22 ;
23 [label="num_pgtos_atrasados <= 7.5\ngini = 0.5\nsamples = 109\nvalue = [56, 53]\nclass = Negar", fillcolor="#fef8f4"] ;
11 -> 23 ;
24 [label="idade <= 45.5\ngini = 0.469\nsamples = 56\nvalue = [35, 21]\nclass = Negar", fillcolor="#f5cdb0"] ;
23 -> 24 ;
25 [label="gini = 0.367\nsamples = 33\nvalue = [25, 8]\nclass = Negar", fillcolor="#eda978"] ;
24 -> 25 ;
26 [label="gini = 0.491\nsamples = 23\nvalue = [10, 13]\nclass = Conceder", fillcolor="#d1e8f9"] ;
24 -> 26 ;
27 [label="saldo_atual <= 337.638\ngini = 0.478\nsamples = 53\nvalue = [21, 32]\nclass = Conceder", fillcolor="#bbddf6"] ;
23 -> 27 ;
28 [label="gini = 0.375\nsamples = 28\nvalue = [7, 21]\nclass = Conceder", fillcolor="#7bbeee"] ;
27 -> 28 ;
29 [label="gini = 0.493\nsamples = 25\nvalue = [14, 11]\nclass = Negar", fillcolor="#f9e4d5"] ;
27 -> 29 ;
30 [label="taxa_utilizacao_credito <= 30.652\ngini = 0.338\nsamples = 139\nvalue = [30, 109]\nclass = Conceder", fillcolor="#6fb8ec"] ;
10 -> 30 ;
31 [label="divida_atual <= 698.275\ngini = 0.452\nsamples = 58\nvalue = [20, 38]\nclass = Conceder", fillcolor="#a1d1f3"] ;
30 -> 31 ;
32 [label="gini = 0.499\nsamples = 27\nvalue = [14, 13]\nclass = Negar", fillcolor="#fdf6f1"] ;
31 -> 32 ;
33 [label="gini = 0.312\nsamples = 31\nvalue = [6, 25]\nclass = Conceder", fillcolor="#69b5eb"] ;
31 -> 33 ;
34 [label="num_emprestimos <= 3.5\ngini = 0.216\nsamples = 81\nvalue = [10, 71]\nclass = Conceder", fillcolor="#55abe9"] ;
30 -> 34 ;
35 [label="num_cartoes_credito <= 6.5\ngini = 0.128\nsamples = 58\nvalue = [4, 54]\nclass = Conceder", fillcolor="#48a4e7"] ;
34 -> 35 ;
36 [label="gini = 0.0\nsamples = 26\nvalue = [0, 26]\nclass = Conceder", fillcolor="#399de5"] ;
35 -> 36 ;
37 [label="gini = 0.219\nsamples = 32\nvalue = [4, 28]\nclass = Conceder", fillcolor="#55abe9"] ;
35 -> 37 ;
38 [label="gini = 0.386\nsamples = 23\nvalue = [6, 17]\nclass = Conceder", fillcolor="#7fc0ee"] ;
34 -> 38 ;
39 [label="num_cartoes_credito <= 3.5\ngini = 0.495\nsamples = 80\nvalue = [44, 36]\nclass = Negar", fillcolor="#fae8db"] ;
9 -> 39 ;
40 [label="gini = 0.375\nsamples = 20\nvalue = [15, 5]\nclass = Negar", fillcolor="#eeab7b"] ;
39 -> 40 ;
41 [label="num_emprestimos <= 2.5\ngini = 0.499\nsamples = 60\nvalue = [29, 31]\nclass = Conceder", fillcolor="#f2f9fd"] ;
39 -> 41 ;
42 [label="gini = 0.484\nsamples = 34\nvalue = [20, 14]\nclass = Negar", fillcolor="#f7d9c4"] ;
41 -> 42 ;
43 [label="gini = 0.453\nsamples = 26\nvalue = [9, 17]\nclass = Conceder", fillcolor="#a2d1f3"] ;
41 -> 43 ;
44 [label="saldo_atual <= 441.16\ngini = 0.244\nsamples = 190\nvalue = [27, 163]\nclass = Conceder", fillcolor="#5aade9"] ;
8 -> 44 ;
45 [label="num_emprestimos <= 1.5\ngini = 0.144\nsamples = 115\nvalue = [9, 106]\nclass = Conceder", fillcolor="#4aa5e7"] ;
44 -> 45 ;
46 [label="gini = 0.326\nsamples = 39\nvalue = [8, 31]\nclass = Conceder", fillcolor="#6cb6ec"] ;
45 -> 46 ;
47 [label="idade <= 52.5\ngini = 0.026\nsamples = 76\nvalue = [1, 75]\nclass = Conceder", fillcolor="#3c9ee5"] ;
45 -> 47 ;
48 [label="gini = 0.0\nsamples = 56\nvalue = [0, 56]\nclass = Conceder", fillcolor="#399de5"] ;
47 -> 48 ;
49 [label="gini = 0.095\nsamples = 20\nvalue = [1, 19]\nclass = Conceder", fillcolor="#43a2e6"] ;
47 -> 49 ;
50 [label="saldo_atual <= 512.564\ngini = 0.365\nsamples = 75\nvalue = [18, 57]\nclass = Conceder", fillcolor="#78bced"] ;
44 -> 50 ;
51 [label="gini = 0.485\nsamples = 29\nvalue = [12, 17]\nclass = Conceder", fillcolor="#c5e2f7"] ;
50 -> 51 ;
52 [label="num_consultas_credito <= 1.5\ngini = 0.227\nsamples = 46\nvalue = [6, 40]\nclass = Conceder", fillcolor="#57ace9"] ;
50 -> 52 ;
53 [label="gini = 0.351\nsamples = 22\nvalue = [5, 17]\nclass = Conceder", fillcolor="#73baed"] ;
52 -> 53 ;
54 [label="gini = 0.08\nsamples = 24\nvalue = [1, 23]\nclass = Conceder", fillcolor="#42a1e6"] ;
52 -> 54 ;
55 [label="taxa_utilizacao_credito <= 26.676\ngini = 0.032\nsamples = 122\nvalue = [2, 120]\nclass = Conceder", fillcolor="#3c9fe5"] ;
7 -> 55 ;
56 [label="gini = 0.165\nsamples = 22\nvalue = [2, 20]\nclass = Conceder", fillcolor="#4da7e8"] ;
55 -> 56 ;
57 [label="gini = 0.0\nsamples = 100\nvalue = [0, 100]\nclass = Conceder", fillcolor="#399de5"] ;
55 -> 57 ;
58 [label="taxa_juros <= 720.0\ngini = 0.013\nsamples = 1033\nvalue = [7, 1026]\nclass = Conceder", fillcolor="#3a9ee5"] ;
0 -> 58 [labeldistance=2.5, labelangle=-45, headlabel="False"] ;
59 [label="gini = 0.0\nsamples = 993\nvalue = [0, 993]\nclass = Conceder", fillcolor="#399de5"] ;
58 -> 59 ;
60 [label="dias_atraso_dt_venc <= 16.5\ngini = 0.289\nsamples = 40\nvalue = [7, 33]\nclass = Conceder", fillcolor="#63b2eb"] ;
58 -> 60 ;
61 [label="gini = 0.455\nsamples = 20\nvalue = [7, 13]\nclass = Conceder", fillcolor="#a4d2f3"] ;
60 -> 61 ;
62 [label="gini = 0.0\nsamples = 20\nvalue = [0, 20]\nclass = Conceder", fillcolor="#399de5"] ;
60 -> 62 ;
}